#ifndef C_SIM_H
#define C_SIM_H

#define W_SIZE 3
#define FIN_SIZE 32
#define FOUT_SIZE 30

const int weight[3*3] = {
	0, 1, 0,
	1, -4, 1,
	0, 1, 0
};
const int feat_in[32*32] = {
	118, 120, 124, 118, 122, 116, 115, 116, 111, 109, 111, 107, 109, 108, 110, 116, 117, 121, 124, 132, 135, 136, 140, 143, 144, 148, 151, 152, 153, 154, 152, 152,
	119, 125, 127, 122, 120, 121, 121, 125, 119, 112, 108, 107, 90, 76, 84, 90, 96, 125, 128, 135, 136, 140, 145, 151, 150, 158, 159, 157, 158, 156, 157, 161,
	122, 126, 127, 121, 125, 126, 127, 122, 118, 106, 107, 74, 55, 56, 33, 16, 23, 18, 57, 123, 137, 140, 144, 149, 155, 154, 156, 158, 159, 161, 156, 159,
	135, 136, 133, 126, 125, 124, 120, 119, 142, 153, 161, 131, 121, 81, 48, 37, 17, 15, 4, 8, 104, 145, 146, 153, 153, 154, 153, 153, 157, 158, 159, 162,
	129, 131, 124, 130, 133, 132, 123, 178, 201, 175, 154, 133, 124, 127, 84, 50, 25, 12, 12, 7, 1, 109, 143, 149, 151, 152, 154, 153, 155, 156, 160, 165,
	136, 135, 135, 137, 139, 138, 155, 200, 182, 151, 100, 80, 64, 85, 72, 67, 54, 58, 30, 26, 10, 24, 145, 150, 149, 154, 152, 157, 154, 156, 159, 161,
	142, 140, 140, 138, 138, 134, 200, 173, 128, 100, 76, 66, 71, 90, 113, 134, 138, 96, 27, 25, 19, 5, 72, 149, 148, 151, 151, 150, 150, 153, 154, 161,
	142, 143, 145, 144, 144, 160, 141, 99, 51, 66, 108, 120, 127, 139, 145, 136, 151, 75, 42, 31, 26, 21, 28, 148, 142, 143, 148, 145, 147, 148, 153, 158,
	138, 146, 150, 147, 149, 125, 84, 20, 93, 193, 207, 196, 184, 162, 143, 140, 146, 102, 81, 58, 45, 38, 29, 139, 146, 147, 145, 146, 147, 152, 152, 157,
	137, 144, 150, 151, 150, 144, 105, 114, 228, 232, 230, 206, 166, 136, 131, 130, 142, 129, 105, 74, 59, 48, 38, 133, 146, 147, 146, 148, 152, 156, 155, 159,
	127, 133, 141, 146, 149, 166, 227, 238, 236, 231, 216, 182, 146, 130, 126, 127, 134, 126, 97, 74, 47, 45, 40, 147, 151, 149, 151, 154, 152, 153, 156, 161,
	123, 130, 137, 137, 143, 152, 229, 234, 237, 234, 220, 194, 176, 154, 143, 137, 130, 125, 92, 74, 63, 36, 52, 143, 150, 150, 150, 151, 151, 153, 155, 158,
	116, 128, 135, 139, 144, 144, 222, 235, 239, 237, 219, 216, 200, 194, 178, 157, 138, 128, 107, 84, 58, 135, 82, 145, 153, 152, 151, 154, 153, 154, 158, 163,
	120, 129, 136, 138, 143, 145, 214, 214, 223, 223, 180, 79, 51, 84, 96, 116, 132, 138, 134, 93, 99, 93, 112, 128, 148, 151, 152, 156, 155, 155, 156, 160,
	116, 126, 130, 133, 138, 140, 198, 79, 81, 226, 140, 57, 117, 158, 135, 129, 157, 151, 143, 137, 121, 38, 126, 144, 152, 155, 157, 158, 160, 160, 158, 163,
	114, 123, 126, 132, 134, 142, 156, 189, 200, 217, 166, 158, 214, 204, 207, 201, 169, 148, 139, 139, 158, 115, 134, 152, 150, 151, 155, 155, 156, 153, 160, 164,
	114, 122, 121, 126, 134, 141, 161, 234, 233, 201, 172, 180, 215, 211, 195, 178, 161, 142, 136, 141, 138, 169, 144, 152, 153, 155, 154, 157, 157, 155, 159, 162,
	116, 121, 125, 127, 132, 139, 157, 235, 234, 206, 169, 160, 191, 190, 176, 161, 146, 136, 143, 139, 126, 124, 150, 149, 150, 151, 154, 159, 160, 158, 158, 161,
	114, 122, 124, 122, 127, 132, 145, 234, 219, 127, 91, 102, 177, 179, 170, 153, 142, 138, 143, 135, 116, 125, 149, 154, 153, 156, 158, 158, 160, 162, 163, 166,
	117, 121, 118, 121, 123, 125, 124, 220, 229, 186, 104, 142, 184, 182, 166, 156, 150, 146, 147, 149, 143, 130, 156, 157, 155, 157, 158, 161, 161, 163, 164, 166,
	115, 120, 118, 121, 120, 125, 121, 165, 224, 222, 213, 196, 177, 170, 160, 154, 148, 148, 150, 150, 151, 146, 161, 158, 158, 160, 163, 164, 166, 166, 166, 163,
	113, 118, 121, 120, 126, 124, 128, 127, 215, 151, 125, 86, 92, 110, 129, 136, 134, 135, 132, 143, 160, 156, 169, 165, 163, 163, 165, 166, 163, 162, 164, 163,
	112, 116, 118, 118, 125, 125, 126, 131, 164, 203, 102, 106, 122, 123, 117, 120, 121, 123, 134, 157, 164, 104, 145, 179, 173, 165, 166, 161, 160, 161, 165, 166,
	113, 120, 119, 121, 121, 127, 127, 130, 129, 188, 233, 221, 184, 152, 136, 126, 120, 125, 148, 164, 167, 125, 169, 138, 186, 177, 167, 165, 163, 162, 166, 168,
	117, 123, 125, 121, 122, 124, 126, 133, 134, 136, 194, 169, 139, 127, 129, 113, 113, 137, 155, 168, 172, 193, 127, 119, 146, 191, 179, 168, 169, 171, 170, 171,
	117, 125, 126, 123, 117, 123, 125, 128, 136, 137, 144, 178, 206, 183, 124, 131, 141, 153, 162, 174, 189, 184, 125, 127, 126, 143, 193, 176, 172, 174, 171, 172,
	120, 124, 124, 124, 124, 126, 127, 129, 135, 141, 142, 213, 233, 223, 170, 152, 173, 187, 180, 191, 222, 136, 132, 135, 141, 125, 141, 161, 179, 174, 174, 176,
	120, 124, 123, 125, 126, 128, 130, 130, 136, 141, 140, 205, 235, 231, 208, 195, 223, 211, 205, 226, 166, 134, 138, 141, 155, 120, 154, 148, 145, 158, 171, 178,
	122, 124, 125, 124, 123, 123, 136, 147, 141, 112, 144, 161, 192, 231, 226, 222, 228, 221, 225, 181, 140, 134, 148, 158, 118, 161, 177, 171, 162, 159, 153, 164,
	121, 124, 124, 125, 135, 145, 147, 144, 107, 167, 135, 176, 142, 227, 217, 213, 232, 233, 154, 156, 125, 142, 159, 159, 116, 178, 185, 177, 174, 169, 171, 166,
	122, 127, 125, 142, 155, 156, 140, 112, 139, 166, 141, 166, 227, 171, 163, 206, 235, 179, 136, 122, 127, 152, 181, 104, 142, 183, 191, 178, 181, 176, 178, 168,
	120, 127, 150, 168, 159, 164, 141, 118, 169, 165, 152, 160, 185, 42, 161, 211, 174, 130, 141, 115, 134, 163, 171, 76, 157, 191, 189, 185, 180, 180, 182, 177
};
const int gold[30*30] = {
	-10, -10, 2, 5, 4, 1, -24, -2, 12, -1, -15, 41, 27, 16, 48, -31, -38, -38, -66, 25, 4, -13, -13, -12, -21, -18, -15, -2, -1, 5,
	-2, -3, 13, -3, -4, -6, -19, 3, 1, 31, 16, 78, 19, 8, 58, 94, 87, 105, -114, -23, -102, 3, 3, 1, 0, 3, 7, -7, -6, -2,
	-30, -26, 5, 2, 1, 1, 67, 69, -6, -59, -57, 50, 52, 61, 187, 70, 73, 149, 75, 121, -163, -13, -15, -25, -4, -2, 3, 0, 1, 3,
	8, 25, 11, -18, -32, 89, -138, -116, -62, 3, -2, 36, -121, -49, -28, 57, 19, 4, 68, 139, -5, -71, 36, 0, -1, 1, -2, 3, 5, -2,
	-9, 8, -8, -10, -23, 59, -112, -89, -1, 54, 49, 82, 18, 90, 71, 47, 9, 27, -59, 12, -93, -116, -9, -80, -1, 1, -2, -2, 1, -6,
	-20, -3, -23, 49, -5, -80, -111, -50, 184, 156, 152, 177, 41, 56, -155, -139, -149, -11, -25, 106, 196, -18, 82, -70, -7, -5, -5, 0, 3, -2,
	-2, -3, 1, -39, -58, -68, 79, 134, -31, -18, 15, 8, -71, -58, -24, -59, 75, 92, 17, 15, 30, 95, -94, -67, 9, 1, 11, 6, 7, 1,
	-7, -9, -7, -14, -33, -14, 236, 292, 38, -131, -98, -86, -50, -38, 0, -48, 85, 64, -14, -17, 1, 64, -124, -89, -1, -9, 3, 0, 1, -5,
	-12, -14, -17, -9, 29, 219, -40, -104, -778, -191, -129, -18, 3, 22, 77, -78, 27, -130, -49, -46, -12, 60, -126, -73, 3, -2, 18, -12, -9, -13,
	13, 6, 5, 51, 52, -57, -140, -132, -138, 3, 40, 72, 44, 26, 27, -12, -8, 41, 21, 3, 108, 29, -121, -108, 2, -2, -6, 4, 1, 1,
	-1, -8, -8, 21, 23, -82, -3, 5, -6, -6, 31, 45, 19, 2, 8, -13, -9, 38, -23, -41, 32, 35, -115, -81, 1, -3, -5, 3, 0, 0,
	10, 5, 10, 20, 18, -85, -29, -23, -47, -82, -92, -207, -177, -165, -91, -25, -14, 46, 81, 32, -20, 4, -141, -56, 0, -2, 5, 3, -1, -4,
	-10, -11, -6, -11, 43, -196, -4, -55, -250, -18, 116, 148, 115, 185, 190, -12, 12, 0, 29, -11, 97, -60, -18, -60, 0, 6, -3, 1, -4, 8,
	-5, -6, 0, 1, 55, -165, 372, 322, 119, 89, 223, 177, -123, -53, -49, -60, -36, -23, -54, -93, 18, -59, -17, -55, -12, -5, -15, -10, -14, -3,
	3, 1, 6, -22, 48, -101, 39, -66, -392, -23, 40, -307, -186, -100, -65, -82, -44, 45, -9, -5, 199, -71, -23, -42, -2, 5, -4, 9, 4, 15,
	-6, 4, -3, -2, 5, 35, -135, -76, -86, 11, -9, -50, -28, -13, -2, 6, 18, 21, 35, 55, 5, 21, -10, -11, -7, -2, -14, -2, 5, 0,
	-6, 4, -3, -5, 3, 39, -48, 10, 21, -21, -41, -92, 13, 27, 36, 28, 39, 29, -27, -7, -30, 20, -10, -9, 7, 12, 0, -7, 0, -6,
	-15, -4, -11, 2, 8, 54, -113, -19, 104, 202, 175, 89, 30, 41, 41, 31, 29, -34, 35, 73, 137, 30, 2, 12, -9, -6, -20, -4, 4, -4,
	-4, 11, -2, 0, -12, 93, -121, 0, -70, 138, 6, -15, -8, 15, 20, -6, -5, -15, -30, -20, 17, -32, -8, -1, 0, 2, -2, 0, -1, 0,
	-6, 9, -5, 6, -6, 76, -50, 71, -19, -92, -224, -193, -20, 3, -14, 2, 3, -6, -5, 6, 26, -26, -2, 7, -5, -3, -8, -9, -10, -8,
	-9, 5, -12, 2, -10, 23, -108, -13, -194, 151, 90, 367, 105, 105, 2, 7, 10, 7, 24, 7, -64, -56, -21, 12, -8, -7, -16, -3, -2, 6,
	-1, 5, 5, -8, -5, -2, 55, 43, -134, 219, 102, 91, 4, 20, 7, 14, 30, 13, -65, -96, 138, -65, 0, -18, 36, -2, 5, 7, 9, -2,
	-5, 1, 0, -2, 1, 3, 39, 28, -84, -66, -183, -172, -45, -29, -42, 3, 19, -14, -33, -64, 124, -98, -33, -25, 34, -4, 12, 3, 5, -5,
	-14, -7, -6, -8, -6, -8, -6, 5, 67, 5, -47, 141, 42, 58, 44, 28, 28, -68, 14, -44, 0, -22, 43, 104, -27, -44, 30, -9, -6, -13,
	-10, -7, -4, 18, 3, 5, 3, -4, -1, 90, 54, -29, -30, 58, 47, -7, -34, -26, 33, -67, -6, 53, -15, 4, 20, -17, 3, -12, 1, 10,
	-6, -2, 3, 2, -12, -9, 2, -5, -4, 5, -31, -126, -61, 26, 7, -10, -36, -10, -31, -130, -9, 61, -7, -5, 34, -3, 23, -36, -24, -22,
	-4, -1, 3, -5, -15, 0, 20, 0, -28, -5, -68, -240, -69, 26, 4, -92, -101, -5, -52, -98, 249, 76, -10, -78, 55, 14, 43, 57, 55, 11,
	-2, -9, 7, 22, 23, 0, -101, -26, -18, -8, -25, 82, -110, -6, 46, 32, -6, 30, 46, 93, 94, -15, -120, 118, -78, -50, -46, -12, -23, -4,
	-2, -8, 8, 1, 3, -23, -3, 71, 35, -61, -78, -6, -149, -44, 3, -44, -82, -2, 24, 71, 45, -6, -111, 151, -60, -32, -19, 6, -5, 8,
	10, 6, 29, -43, -34, -54, 11, 47, -156, 39, 9, -14, -98, 30, 116, -42, -21, 264, 68, 92, -34, 11, -82, 250, -66, -31, 12, -11, -23, -26
};

#endif //C_SIM_H
