#ifndef C_SIM_H
#define C_SIM_H

#define W_SIZE 3
#define FIN_SIZE 32
#define FOUT_SIZE 30

const int weight[3*3] = {
	0, 1, 0,
	1, -4, 1,
	0, 1, 0
};
const int feat_in[32*32] = {
	118, 120, 124, 118, 122, 116, 115, 116, 111, 109, 111, 107, 109, 108, 110, 116, 117, 121, 124, 132, 135, 136, 140, 143, 144, 148, 151, 152, 153, 154, 152, 152,
	119, 125, 127, 122, 120, 121, 121, 125, 119, 112, 108, 107, 90, 76, 84, 90, 96, 125, 128, 135, 136, 140, 145, 151, 150, 158, 159, 157, 158, 156, 157, 161,
	122, 126, 127, 121, 125, 126, 127, 122, 118, 106, 107, 74, 55, 56, 33, 16, 23, 18, 57, 123, 137, 140, 144, 149, 155, 154, 156, 158, 159, 161, 156, 159,
	135, 136, 133, 126, 125, 124, 120, 119, 142, 153, 161, 131, 121, 81, 48, 37, 17, 15, 4, 8, 104, 145, 146, 153, 153, 154, 153, 153, 157, 158, 159, 162,
	129, 131, 124, 130, 133, 132, 123, 178, 201, 175, 154, 133, 124, 127, 84, 50, 25, 12, 12, 7, 1, 109, 143, 149, 151, 152, 154, 153, 155, 156, 160, 165,
	136, 135, 135, 137, 139, 138, 155, 200, 182, 151, 100, 80, 64, 85, 72, 67, 54, 58, 30, 26, 10, 24, 145, 150, 149, 154, 152, 157, 154, 156, 159, 161,
	142, 140, 140, 138, 138, 134, 200, 173, 128, 100, 76, 66, 71, 90, 113, 134, 138, 96, 27, 25, 19, 5, 72, 149, 148, 151, 151, 150, 150, 153, 154, 161,
	142, 143, 145, 144, 144, 160, 141, 99, 51, 66, 108, 120, 127, 139, 145, 136, 151, 75, 42, 31, 26, 21, 28, 148, 142, 143, 148, 145, 147, 148, 153, 158,
	138, 146, 150, 147, 149, 125, 84, 20, 93, 193, 207, 196, 184, 162, 143, 140, 146, 102, 81, 58, 45, 38, 29, 139, 146, 147, 145, 146, 147, 152, 152, 157,
	137, 144, 150, 151, 150, 144, 105, 114, 228, 232, 230, 206, 166, 136, 131, 130, 142, 129, 105, 74, 59, 48, 38, 133, 146, 147, 146, 148, 152, 156, 155, 159,
	127, 133, 141, 146, 149, 166, 227, 238, 236, 231, 216, 182, 146, 130, 126, 127, 134, 126, 97, 74, 47, 45, 40, 147, 151, 149, 151, 154, 152, 153, 156, 161,
	123, 130, 137, 137, 143, 152, 229, 234, 237, 234, 220, 194, 176, 154, 143, 137, 130, 125, 92, 74, 63, 36, 52, 143, 150, 150, 150, 151, 151, 153, 155, 158,
	116, 128, 135, 139, 144, 144, 222, 235, 239, 237, 219, 216, 200, 194, 178, 157, 138, 128, 107, 84, 58, 135, 82, 145, 153, 152, 151, 154, 153, 154, 158, 163,
	120, 129, 136, 138, 143, 145, 214, 214, 223, 223, 180, 79, 51, 84, 96, 116, 132, 138, 134, 93, 99, 93, 112, 128, 148, 151, 152, 156, 155, 155, 156, 160,
	116, 126, 130, 133, 138, 140, 198, 79, 81, 226, 140, 57, 117, 158, 135, 129, 157, 151, 143, 137, 121, 38, 126, 144, 152, 155, 157, 158, 160, 160, 158, 163,
	114, 123, 126, 132, 134, 142, 156, 189, 200, 217, 166, 158, 214, 204, 207, 201, 169, 148, 139, 139, 158, 115, 134, 152, 150, 151, 155, 155, 156, 153, 160, 164,
	114, 122, 121, 126, 134, 141, 161, 234, 233, 201, 172, 180, 215, 211, 195, 178, 161, 142, 136, 141, 138, 169, 144, 152, 153, 155, 154, 157, 157, 155, 159, 162,
	116, 121, 125, 127, 132, 139, 157, 235, 234, 206, 169, 160, 191, 190, 176, 161, 146, 136, 143, 139, 126, 124, 150, 149, 150, 151, 154, 159, 160, 158, 158, 161,
	114, 122, 124, 122, 127, 132, 145, 234, 219, 127, 91, 102, 177, 179, 170, 153, 142, 138, 143, 135, 116, 125, 149, 154, 153, 156, 158, 158, 160, 162, 163, 166,
	117, 121, 118, 121, 123, 125, 124, 220, 229, 186, 104, 142, 184, 182, 166, 156, 150, 146, 147, 149, 143, 130, 156, 157, 155, 157, 158, 161, 161, 163, 164, 166,
	115, 120, 118, 121, 120, 125, 121, 165, 224, 222, 213, 196, 177, 170, 160, 154, 148, 148, 150, 150, 151, 146, 161, 158, 158, 160, 163, 164, 166, 166, 166, 163,
	113, 118, 121, 120, 126, 124, 128, 127, 215, 151, 125, 86, 92, 110, 129, 136, 134, 135, 132, 143, 160, 156, 169, 165, 163, 163, 165, 166, 163, 162, 164, 163,
	112, 116, 118, 118, 125, 125, 126, 131, 164, 203, 102, 106, 122, 123, 117, 120, 121, 123, 134, 157, 164, 104, 145, 179, 173, 165, 166, 161, 160, 161, 165, 166,
	113, 120, 119, 121, 121, 127, 127, 130, 129, 188, 233, 221, 184, 152, 136, 126, 120, 125, 148, 164, 167, 125, 169, 138, 186, 177, 167, 165, 163, 162, 166, 168,
	117, 123, 125, 121, 122, 124, 126, 133, 134, 136, 194, 169, 139, 127, 129, 113, 113, 137, 155, 168, 172, 193, 127, 119, 146, 191, 179, 168, 169, 171, 170, 171,
	117, 125, 126, 123, 117, 123, 125, 128, 136, 137, 144, 178, 206, 183, 124, 131, 141, 153, 162, 174, 189, 184, 125, 127, 126, 143, 193, 176, 172, 174, 171, 172,
	120, 124, 124, 124, 124, 126, 127, 129, 135, 141, 142, 213, 233, 223, 170, 152, 173, 187, 180, 191, 222, 136, 132, 135, 141, 125, 141, 161, 179, 174, 174, 176,
	120, 124, 123, 125, 126, 128, 130, 130, 136, 141, 140, 205, 235, 231, 208, 195, 223, 211, 205, 226, 166, 134, 138, 141, 155, 120, 154, 148, 145, 158, 171, 178,
	122, 124, 125, 124, 123, 123, 136, 147, 141, 112, 144, 161, 192, 231, 226, 222, 228, 221, 225, 181, 140, 134, 148, 158, 118, 161, 177, 171, 162, 159, 153, 164,
	121, 124, 124, 125, 135, 145, 147, 144, 107, 167, 135, 176, 142, 227, 217, 213, 232, 233, 154, 156, 125, 142, 159, 159, 116, 178, 185, 177, 174, 169, 171, 166,
	122, 127, 125, 142, 155, 156, 140, 112, 139, 166, 141, 166, 227, 171, 163, 206, 235, 179, 136, 122, 127, 152, 181, 104, 142, 183, 191, 178, 181, 176, 178, 168,
	120, 127, 150, 168, 159, 164, 141, 118, 169, 165, 152, 160, 185, 42, 161, 211, 174, 130, 141, 115, 134, 163, 171, 76, 157, 191, 189, 185, 180, 180, 182, 177
};
const int gold[30*30] = {
	-5, -13, 4, 8, 1, 3, -21, -6, 1, -1, -31, -5, 31, -17, -43, -40, -137, -93, -19, -6, -6, -6, -22, 4, -21, -17, -3, -6, 4, 0,
	8, -1, 21, -8, -8, -17, 4, 8, 63, 20, 119, 134, 15, 84, 121, 63, 134, 48, -143, -94, -17, 6, 0, -14, 6, -1, -6, -3, -15, 10,
	-22, -17, 5, 10, 6, 16, 100, 13, -9, -106, -9, -80, 23, 75, 8, 17, -1, 56, 179, -129, -137, 1, -21, -3, -4, 3, 8, -3, -1, 0,
	0, 34, 2, -11, -10, 86, -63, -130, -32, -53, -18, -38, -142, -17, 20, 43, 61, 24, 24, 186, -151, -21, -6, -1, 2, -5, 4, -1, 3, -4,
	-2, -1, -8, -26, 10, 12, -105, -38, -20, 54, 58, 105, 10, 70, 48, 74, -13, 37, -59, 36, 126, -171, -50, 6, -12, 7, -19, 1, -5, -8,
	-1, -3, 6, 6, 92, -197, -78, 27, 28, 70, 87, 67, 49, -8, -76, -120, -50, 115, -5, 0, 111, 71, -141, 2, -8, -5, 1, 2, -6, 5,
	2, -5, 0, 1, -82, -34, -23, 167, 152, 33, 27, 9, -36, -52, 16, -109, 134, 90, 27, 21, 23, 202, -228, 13, 15, -7, 10, 3, 8, -1,
	-8, -16, 5, -14, 32, 83, 321, 87, -184, -96, -61, -69, -44, 5, -1, -58, 67, 11, -2, 10, -2, 178, -208, -14, -6, 4, 1, 9, -8, 6,
	-9, -20, -13, -14, -27, 138, 128, -273, -94, -59, -28, 32, 39, 22, 20, -30, -15, -15, -9, -3, -8, 148, -171, -13, -2, 7, 3, -5, -16, 1,
	12, -5, -7, 0, 6, -190, -113, -69, -7, 1, 59, 99, 39, 34, 22, -2, -11, 37, -1, 65, 9, 163, -215, -23, 1, -5, -16, 3, 2, -1,
	1, -13, 12, -21, 65, -151, 4, -6, -8, -14, 36, 16, 26, 33, 18, 21, -15, 59, -16, -11, 113, 131, -164, -9, -1, 2, 1, 3, -1, 1,
	0, -8, -3, -41, 81, -140, -28, -31, -32, -44, -109, -140, -164, -123, -66, 4, -5, 28, 3, 151, -255, 136, -128, -31, -5, 3, -8, 1, 2, -6,
	-6, -18, -5, -41, 60, -145, -140, -138, -98, -92, 230, 254, 159, 148, 63, 23, 1, -41, 72, -10, 14, -4, -4, -16, 2, 6, -8, 3, 4, 6,
	-6, -5, 2, -21, 58, -245, 366, 393, -252, 34, 320, -2, -92, 42, 86, -48, -11, -5, -34, -65, 327, -72, -35, -20, -9, -11, -6, -15, -13, 2,
	-6, 0, -14, -8, -2, 27, -116, -81, -132, -20, 22, -210, -31, -74, -110, -13, 21, 17, 26, -110, 64, 4, -41, 3, 10, -4, 3, -1, 20, -7,
	-10, 11, 6, -8, 4, 28, -114, -69, 29, 2, -7, -108, -38, -3, 16, -17, 28, 21, 0, 38, -133, 33, -19, -5, -11, 1, -6, -4, 9, -5,
	0, -8, -5, -7, -1, 35, -55, -36, -31, -70, -8, -78, -1, 24, 25, 9, 36, -18, -27, 23, 53, -32, 3, 5, 10, 5, -9, -8, 3, 6,
	-10, -10, 8, -2, 3, 58, -98, -57, 229, 127, 147, -89, 1, 9, 29, 12, 22, -14, 5, 74, 26, -12, -9, 3, -7, -9, 1, 0, -4, -3,
	-8, 12, -1, 1, -2, 110, -94, -90, -15, 200, 20, -87, -28, 13, 10, -12, 1, -4, -27, -18, 47, -27, -7, 5, 1, 4, -4, 6, 0, 1,
	-9, 7, -7, 13, -10, 56, 83, -114, -61, -218, -166, -90, -50, -23, -15, -7, -12, -23, -1, -11, 22, -16, 10, 6, 0, -7, -3, -11, -8, -9,
	-4, -10, 4, -14, 5, -13, 144, -241, 142, 49, 181, 128, 70, 15, -6, 0, -4, 27, 44, -31, -13, -40, -7, 10, 2, -5, -10, 1, 5, -2,
	4, 0, 11, -11, 0, 5, 46, -22, -205, 253, 132, 32, 10, 38, 21, 9, 19, 13, -7, -79, 197, 20, -78, -22, 17, -2, 13, 5, 5, -6,
	-8, 6, -3, 10, -12, -1, -3, 82, -72, -229, -182, -95, -37, -18, -9, 3, 15, -29, -5, -49, 152, -140, 88, -121, 1, 24, 6, 3, 11, -1,
	-5, -12, 7, -3, -4, 4, -28, -6, 78, -87, 45, 134, 76, 21, 48, 54, -11, -22, 9, 19, -141, 78, 76, 14, -105, -17, 26, -3, -10, -2,
	-9, -8, -2, 24, -2, 2, 10, -14, 5, 88, -4, -86, -57, 142, 23, 12, -4, 8, 38, -22, -61, 60, -1, 36, 61, -135, -15, 8, -7, 6,
	-3, 0, 0, -2, -6, 0, 5, -5, -13, 79, -144, -84, -95, 67, 63, 9, -31, 23, 36, -184, 146, 3, -2, -30, 71, 27, 11, -63, -19, -10,
	-5, 5, -3, -8, -8, -7, 27, 3, -24, 80, -116, -105, -37, 18, 36, -83, -12, 23, -141, 62, 84, 14, 15, -83, 119, -46, 32, 65, 20, -18,
	-3, -5, 0, 18, 34, 1, -62, -47, 112, -2, 19, 3, -53, -10, -18, 4, 18, -97, 4, 91, 35, 4, -68, 132, -38, -58, -13, -1, 1, 45,
	-5, 3, 16, 8, -20, -22, -58, 152, -148, 75, -122, 207, -161, -33, 5, -26, -115, 153, -56, 82, -8, -23, -66, 134, -57, -29, 9, -9, 7, -16,
	-10, 31, -5, -19, -28, 6, 81, -10, -80, 68, 15, -240, -10, 48, -25, -143, 39, 85, 31, 30, -19, -172, 189, -28, -27, -32, 28, -19, 6, -17
};

#endif //C_SIM_H
