#ifndef C_SIM_H
#define C_SIM_H

#define QUANT SHIFT
#define QUANT_BITS 4
#define W_SIZE 3
#define FIN_SIZE 32
#define FOUT_SIZE 30

const int weight[3*3] = {
	0, 1, 0,
	1, -4, 1,
	0, 1, 0
};
const int weight_gg[3*5] = {
	0, 0, 0, 0, 0,
	0, 1, -1, 0, 1,
	0, 0, 0, 0, 0
};
const int weight_gg_quant[3*5] = {
	0, -8, 2, 5, 0,
	8, 16, -16, -8, 16,
	0, -8, 2, 5, 0
};
const int feat_in[32*32] = {
	118, 120, 124, 118, 122, 116, 115, 116, 111, 109, 111, 107, 109, 108, 110, 116, 117, 121, 124, 132, 135, 136, 140, 143, 144, 148, 151, 152, 153, 154, 152, 152,
	119, 125, 127, 122, 120, 121, 121, 125, 119, 112, 108, 107, 90, 76, 84, 90, 96, 125, 128, 135, 136, 140, 145, 151, 150, 158, 159, 157, 158, 156, 157, 161,
	122, 126, 127, 121, 125, 126, 127, 122, 118, 106, 107, 74, 55, 56, 33, 16, 23, 18, 57, 123, 137, 140, 144, 149, 155, 154, 156, 158, 159, 161, 156, 159,
	135, 136, 133, 126, 125, 124, 120, 119, 142, 153, 161, 131, 121, 81, 48, 37, 17, 15, 4, 8, 104, 145, 146, 153, 153, 154, 153, 153, 157, 158, 159, 162,
	129, 131, 124, 130, 133, 132, 123, 178, 201, 175, 154, 133, 124, 127, 84, 50, 25, 12, 12, 7, 1, 109, 143, 149, 151, 152, 154, 153, 155, 156, 160, 165,
	136, 135, 135, 137, 139, 138, 155, 200, 182, 151, 100, 80, 64, 85, 72, 67, 54, 58, 30, 26, 10, 24, 145, 150, 149, 154, 152, 157, 154, 156, 159, 161,
	142, 140, 140, 138, 138, 134, 200, 173, 128, 100, 76, 66, 71, 90, 113, 134, 138, 96, 27, 25, 19, 5, 72, 149, 148, 151, 151, 150, 150, 153, 154, 161,
	142, 143, 145, 144, 144, 160, 141, 99, 51, 66, 108, 120, 127, 139, 145, 136, 151, 75, 42, 31, 26, 21, 28, 148, 142, 143, 148, 145, 147, 148, 153, 158,
	138, 146, 150, 147, 149, 125, 84, 20, 93, 193, 207, 196, 184, 162, 143, 140, 146, 102, 81, 58, 45, 38, 29, 139, 146, 147, 145, 146, 147, 152, 152, 157,
	137, 144, 150, 151, 150, 144, 105, 114, 228, 232, 230, 206, 166, 136, 131, 130, 142, 129, 105, 74, 59, 48, 38, 133, 146, 147, 146, 148, 152, 156, 155, 159,
	127, 133, 141, 146, 149, 166, 227, 238, 236, 231, 216, 182, 146, 130, 126, 127, 134, 126, 97, 74, 47, 45, 40, 147, 151, 149, 151, 154, 152, 153, 156, 161,
	123, 130, 137, 137, 143, 152, 229, 234, 237, 234, 220, 194, 176, 154, 143, 137, 130, 125, 92, 74, 63, 36, 52, 143, 150, 150, 150, 151, 151, 153, 155, 158,
	116, 128, 135, 139, 144, 144, 222, 235, 239, 237, 219, 216, 200, 194, 178, 157, 138, 128, 107, 84, 58, 135, 82, 145, 153, 152, 151, 154, 153, 154, 158, 163,
	120, 129, 136, 138, 143, 145, 214, 214, 223, 223, 180, 79, 51, 84, 96, 116, 132, 138, 134, 93, 99, 93, 112, 128, 148, 151, 152, 156, 155, 155, 156, 160,
	116, 126, 130, 133, 138, 140, 198, 79, 81, 226, 140, 57, 117, 158, 135, 129, 157, 151, 143, 137, 121, 38, 126, 144, 152, 155, 157, 158, 160, 160, 158, 163,
	114, 123, 126, 132, 134, 142, 156, 189, 200, 217, 166, 158, 214, 204, 207, 201, 169, 148, 139, 139, 158, 115, 134, 152, 150, 151, 155, 155, 156, 153, 160, 164,
	114, 122, 121, 126, 134, 141, 161, 234, 233, 201, 172, 180, 215, 211, 195, 178, 161, 142, 136, 141, 138, 169, 144, 152, 153, 155, 154, 157, 157, 155, 159, 162,
	116, 121, 125, 127, 132, 139, 157, 235, 234, 206, 169, 160, 191, 190, 176, 161, 146, 136, 143, 139, 126, 124, 150, 149, 150, 151, 154, 159, 160, 158, 158, 161,
	114, 122, 124, 122, 127, 132, 145, 234, 219, 127, 91, 102, 177, 179, 170, 153, 142, 138, 143, 135, 116, 125, 149, 154, 153, 156, 158, 158, 160, 162, 163, 166,
	117, 121, 118, 121, 123, 125, 124, 220, 229, 186, 104, 142, 184, 182, 166, 156, 150, 146, 147, 149, 143, 130, 156, 157, 155, 157, 158, 161, 161, 163, 164, 166,
	115, 120, 118, 121, 120, 125, 121, 165, 224, 222, 213, 196, 177, 170, 160, 154, 148, 148, 150, 150, 151, 146, 161, 158, 158, 160, 163, 164, 166, 166, 166, 163,
	113, 118, 121, 120, 126, 124, 128, 127, 215, 151, 125, 86, 92, 110, 129, 136, 134, 135, 132, 143, 160, 156, 169, 165, 163, 163, 165, 166, 163, 162, 164, 163,
	112, 116, 118, 118, 125, 125, 126, 131, 164, 203, 102, 106, 122, 123, 117, 120, 121, 123, 134, 157, 164, 104, 145, 179, 173, 165, 166, 161, 160, 161, 165, 166,
	113, 120, 119, 121, 121, 127, 127, 130, 129, 188, 233, 221, 184, 152, 136, 126, 120, 125, 148, 164, 167, 125, 169, 138, 186, 177, 167, 165, 163, 162, 166, 168,
	117, 123, 125, 121, 122, 124, 126, 133, 134, 136, 194, 169, 139, 127, 129, 113, 113, 137, 155, 168, 172, 193, 127, 119, 146, 191, 179, 168, 169, 171, 170, 171,
	117, 125, 126, 123, 117, 123, 125, 128, 136, 137, 144, 178, 206, 183, 124, 131, 141, 153, 162, 174, 189, 184, 125, 127, 126, 143, 193, 176, 172, 174, 171, 172,
	120, 124, 124, 124, 124, 126, 127, 129, 135, 141, 142, 213, 233, 223, 170, 152, 173, 187, 180, 191, 222, 136, 132, 135, 141, 125, 141, 161, 179, 174, 174, 176,
	120, 124, 123, 125, 126, 128, 130, 130, 136, 141, 140, 205, 235, 231, 208, 195, 223, 211, 205, 226, 166, 134, 138, 141, 155, 120, 154, 148, 145, 158, 171, 178,
	122, 124, 125, 124, 123, 123, 136, 147, 141, 112, 144, 161, 192, 231, 226, 222, 228, 221, 225, 181, 140, 134, 148, 158, 118, 161, 177, 171, 162, 159, 153, 164,
	121, 124, 124, 125, 135, 145, 147, 144, 107, 167, 135, 176, 142, 227, 217, 213, 232, 233, 154, 156, 125, 142, 159, 159, 116, 178, 185, 177, 174, 169, 171, 166,
	122, 127, 125, 142, 155, 156, 140, 112, 139, 166, 141, 166, 227, 171, 163, 206, 235, 179, 136, 122, 127, 152, 181, 104, 142, 183, 191, 178, 181, 176, 178, 168,
	120, 127, 150, 168, 159, 164, 141, 118, 169, 165, 152, 160, 185, 42, 161, 211, 174, 130, 141, 115, 134, 163, 171, 76, 157, 191, 189, 185, 180, 180, 182, 177
};
const int gold[30*30] = {
	-8, -10, -2, 10, -1, 4, -22, -10, -6, 5, -49, -13, 34, -27, -48, -29, -137, -71, -21, 3, -3, -5, -17, 8, -21, -14, -1, -7, 6, -3,
	6, -1, 16, -8, -7, -19, 1, 17, 66, 21, 104, 121, 21, 72, 119, 55, 148, 45, -155, -45, 6, 4, 7, -14, 7, 0, -7, -2, -15, 12,
	-19, -19, 5, 8, 7, 13, 86, 23, -28, -99, -35, -93, 28, 43, -17, 32, -9, 76, 206, -125, -81, 1, -15, 1, -4, 5, 9, -3, 1, 0,
	0, 33, 0, -6, -10, 93, -69, -127, -41, -47, -43, -51, -134, -39, 13, 33, 62, 5, 19, 226, -123, -23, 1, -1, 5, -6, 7, 0, 5, -1,
	2, -4, -6, -10, 8, 41, -112, -48, -47, 61, 43, 104, 13, 61, 42, 72, -40, 3, -32, 30, 173, -191, -8, 7, -12, 8, -19, 2, -2, -5,
	0, -2, 7, 3, 100, -197, -65, -6, 21, 70, 83, 63, 48, -11, -82, -117, -86, 85, 3, -10, 116, 39, -78, -1, -8, -3, 3, 4, -4, 10,
	1, -3, -2, 15, -96, -21, -11, 182, 188, 37, 17, 6, -32, -49, 26, -109, 91, 46, 27, 12, 13, 158, -134, 17, 16, -8, 11, 2, 13, 0,
	-9, -12, 6, -30, 37, 55, 310, 120, -174, -101, -67, -85, -46, 6, -5, -49, 23, -17, -1, 1, -9, 127, -100, -10, -7, 7, 1, 9, -5, 9,
	-10, -14, -11, -7, -30, 149, 135, -237, -46, -59, -50, 8, 45, 11, 20, -29, -41, -39, 0, -22, -12, 98, -62, -7, 0, 7, 6, -5, -12, 3,
	10, 2, -6, 9, 8, -170, -141, -10, -6, -1, 34, 70, 42, 27, 19, -11, -19, 9, -4, 53, -9, 122, -121, -12, 3, -5, -14, 2, 5, 0,
	1, -5, 17, 10, 74, -81, 3, -5, -11, -17, 18, -10, 27, 23, 9, 14, -24, 35, 17, -37, 151, 93, -78, -3, 1, 3, 5, 5, 1, 5,
	-2, 0, -2, -7, 87, -66, -31, -24, -33, -23, -172, -163, -160, -122, -59, -5, -4, 10, -4, 149, -271, 116, -74, -17, -3, 4, -5, 2, 3, -4,
	-6, -12, -1, -7, 61, -77, -105, -135, -26, -59, 188, 276, 163, 129, 50, 21, -7, -55, 82, -31, 12, -19, 37, -8, 3, 7, -5, 4, 5, 7,
	-6, 1, 6, -2, 63, -203, 366, 404, -243, 69, 266, 12, -92, 50, 93, -47, -18, -11, -52, -52, 303, -76, -18, -11, -9, -8, -4, -11, -14, 7,
	-4, 2, -9, 10, 3, 66, -87, -80, -75, 23, -15, -162, -26, -93, -121, -9, 9, 10, 19, -119, 39, 1, -28, 8, 11, -3, 6, 1, 19, -6,
	-9, 15, 10, -3, 12, 44, -118, -63, 24, 28, -15, -64, -40, -8, 6, -9, 13, 21, -12, 42, -155, 29, -10, -5, -11, 5, -3, 0, 7, -1,
	1, -7, -3, -1, 6, 52, -81, -43, -93, -47, 2, -22, -3, 12, 9, 16, 25, -18, -11, 13, 74, -34, 10, 6, 11, 6, -7, -6, 3, 9,
	-8, -9, 11, 1, 8, 67, -117, -52, 194, 138, 162, -52, 3, -6, 17, 19, 15, -9, 7, 65, 19, -11, -8, 3, -5, -6, 6, 1, -4, -2,
	-7, 12, 0, 1, 4, 115, -128, -67, -62, 216, 18, -58, -29, 4, -1, -8, -1, 0, -21, -26, 50, -27, -5, 5, 1, 7, -3, 6, 1, 2,
	-8, 8, -5, 15, -10, 58, 32, -65, -114, -205, -166, -66, -51, -21, -16, -6, -13, -23, -7, -5, 14, -15, 9, 4, 1, -5, 0, -10, -7, -7,
	-2, -10, 6, -15, 8, -14, 131, -194, 161, 52, 175, 127, 74, 7, -7, 4, -3, 34, 27, -26, -45, -49, 9, 7, 1, -2, -11, 2, 6, 0,
	4, 2, 12, -10, 2, 7, 23, 22, -207, 259, 107, 17, 9, 40, 20, 13, 23, 24, -23, -68, 174, 41, -95, 1, 19, -6, 13, 8, 5, -3,
	-9, 8, -5, 11, -11, 1, 0, 100, -51, -227, -192, -102, -38, -20, -15, 5, 28, -14, -16, -43, 133, -141, 101, -110, 1, 19, -1, 4, 13, 1,
	-5, -11, 7, -5, 2, 5, -14, -2, 109, -94, 56, 130, 95, -16, 47, 59, -2, -5, -7, 29, -164, 98, 62, 38, -119, 3, 17, -2, -9, -1,
	-10, -7, -4, 24, 0, 4, 11, -10, 9, 75, 20, -91, -52, 117, 6, 6, 15, 14, 14, -4, -93, 70, -3, 53, 63, -133, -10, 10, -8, 6,
	-3, 1, 0, -3, -2, 2, 4, 2, -9, 70, -94, -55, -75, 27, 61, 11, -31, 25, 38, -206, 128, 6, 1, -23, 45, 69, 0, -64, -11, -4,
	-5, 6, -3, -4, -7, 1, 22, 3, -35, 72, -71, -79, -27, -10, 25, -85, -8, 22, -161, 58, 38, 3, 22, -100, 115, -30, 39, 67, 17, -21,
	-1, -5, 2, 16, 40, 3, -37, -62, 145, -28, 73, 1, -48, -26, -26, -14, 13, -139, 23, 46, 28, -3, -66, 118, -51, -37, -20, 1, 6, 53,
	0, 3, 25, 8, -19, -23, -63, 163, -148, 88, -100, 254, -147, -39, 25, -19, -146, 134, -42, 65, 2, -6, -99, 133, -67, -17, 0, -7, 4, -18,
	-10, 43, 5, -28, -20, -4, 93, -2, -52, 55, 40, -244, -25, 103, -2, -149, 18, 52, 46, 25, 5, -138, 142, -8, -30, -29, 22, -16, 4, -15
};
const int gold_quant[30*30] = {
	-8, -12, -2, 9, -2, 3, -23, -10, -5, 3, -45, -12, 32, -26, -47, -32, -138, -77, -21, 0, -5, -6, -19, 6, -21, -16, -3, -7, 4, -3,
	6, -2, 16, -8, -8, -19, 1, 14, 64, 20, 107, 124, 19, 75, 119, 56, 144, 45, -153, -58, -1, 4, 5, -14, 6, -1, -7, -3, -16, 10,
	-20, -20, 4, 8, 6, 13, 89, 20, -24, -101, -29, -90, 26, 50, -11, 28, -8, 71, 198, -127, -96, 0, -17, -1, -4, 3, 8, -4, -1, -1,
	-1, 33, -1, -8, -10, 90, -69, -128, -40, -50, -38, -48, -137, -34, 14, 35, 61, 9, 20, 216, -131, -23, -1, -1, 3, -6, 6, -1, 3, -3,
	1, -4, -7, -15, 8, 33, -111, -46, -41, 59, 46, 104, 12, 63, 43, 72, -34, 11, -40, 30, 160, -187, -19, 6, -12, 7, -19, 1, -4, -7,
	-1, -3, 6, 3, 98, -198, -69, 2, 22, 69, 83, 64, 47, -11, -81, -118, -78, 92, 1, -8, 114, 46, -94, -1, -9, -4, 2, 2, -6, 8,
	1, -4, -2, 11, -93, -25, -15, 177, 178, 36, 19, 6, -33, -50, 23, -110, 101, 56, 26, 13, 14, 168, -158, 16, 15, -8, 10, 2, 11, -1,
	-9, -14, 5, -26, 35, 61, 312, 111, -177, -100, -66, -81, -47, 5, -4, -52, 33, -10, -2, 2, -8, 139, -127, -12, -8, 6, 0, 8, -7, 8,
	-10, -16, -12, -9, -30, 146, 133, -247, -59, -59, -45, 13, 43, 13, 19, -30, -35, -34, -3, -18, -12, 110, -90, -9, -2, 6, 4, -6, -14, 2,
	10, 0, -7, 6, 6, -176, -135, -26, -7, -1, 40, 77, 40, 28, 19, -10, -18, 16, -4, 55, -5, 132, -145, -15, 1, -5, -16, 2, 3, -1,
	1, -7, 15, 2, 71, -99, 3, -6, -11, -17, 22, -4, 26, 25, 10, 15, -22, 40, 8, -31, 141, 102, -100, -5, -1, 2, 3, 3, -1, 3,
	-2, -2, -3, -17, 84, -85, -31, -27, -33, -29, -157, -158, -162, -123, -62, -4, -5, 14, -3, 149, -268, 120, -88, -21, -5, 3, -7, 1, 2, -6,
	-6, -14, -3, -16, 60, -95, -114, -137, -45, -68, 198, 270, 161, 133, 52, 21, -6, -52, 79, -26, 12, -16, 26, -10, 2, 6, -7, 3, 4, 6,
	-7, -1, 4, -8, 61, -214, 365, 400, -246, 60, 279, 8, -93, 47, 90, -48, -17, -10, -49, -56, 308, -76, -23, -14, -10, -10, -5, -13, -14, 5,
	-5, 1, -11, 5, 1, 55, -95, -81, -90, 12, -6, -175, -28, -89, -119, -10, 11, 11, 20, -117, 45, 1, -32, 6, 10, -4, 4, 0, 19, -7,
	-10, 13, 8, -5, 10, 39, -118, -65, 24, 21, -13, -75, -40, -8, 7, -12, 16, 21, -10, 40, -150, 29, -13, -6, -12, 3, -4, -2, 7, -2,
	0, -8, -4, -3, 4, 47, -76, -42, -78, -53, -1, -37, -3, 15, 13, 14, 27, -19, -16, 15, 68, -34, 8, 5, 10, 5, -8, -7, 2, 7,
	-9, -10, 9, 0, 6, 64, -113, -54, 202, 134, 158, -62, 2, -3, 19, 16, 16, -11, 6, 66, 20, -12, -9, 2, -7, -8, 4, 0, -5, -3,
	-8, 11, -1, 0, 2, 113, -121, -74, -51, 212, 18, -66, -30, 6, 1, -10, -1, -2, -23, -25, 48, -28, -6, 5, 1, 5, -4, 6, 0, 1,
	-9, 7, -6, 14, -11, 57, 44, -78, -101, -209, -167, -73, -52, -22, -16, -7, -14, -24, -6, -8, 15, -16, 8, 4, 0, -7, -2, -11, -8, -9,
	-3, -11, 5, -16, 7, -15, 133, -207, 156, 51, 176, 127, 72, 8, -8, 2, -4, 31, 31, -28, -38, -48, 4, 7, 1, -4, -12, 1, 5, -1,
	3, 1, 11, -11, 1, 6, 28, 11, -207, 257, 112, 20, 8, 39, 20, 11, 21, 21, -20, -72, 179, 35, -92, -5, 18, -6, 12, 6, 5, -5,
	-9, 6, -5, 10, -12, -1, -2, 94, -57, -228, -190, -101, -38, -21, -14, 4, 24, -19, -14, -45, 137, -142, 97, -114, 0, 19, 0, 3, 11, 0,
	-6, -12, 6, -5, 0, 4, -18, -3, 100, -93, 52, 130, 89, -7, 47, 57, -5, -10, -4, 26, -159, 93, 64, 32, -116, -3, 19, -3, -10, -2,
	-10, -8, -4, 24, -2, 2, 10, -12, 7, 78, 14, -91, -54, 122, 10, 7, 10, 11, 19, -9, -86, 66, -3, 48, 61, -134, -12, 9, -9, 6,
	-4, 0, -1, -3, -4, 0, 4, 0, -11, 72, -108, -63, -81, 36, 61, 10, -32, 23, 37, -201, 132, 5, -1, -25, 51, 57, 2, -64, -14, -6,
	-5, 5, -3, -5, -8, -2, 23, 2, -33, 74, -83, -86, -31, -4, 27, -85, -10, 21, -157, 59, 48, 5, 19, -96, 115, -34, 36, 66, 17, -21,
	-3, -5, 0, 16, 37, 1, -44, -59, 136, -22, 58, 1, -50, -23, -25, -10, 13, -130, 18, 56, 29, -2, -67, 121, -49, -43, -19, 0, 4, 50,
	-2, 2, 22, 8, -20, -23, -62, 159, -149, 84, -107, 242, -152, -38, 19, -21, -139, 138, -47, 69, -2, -11, -92, 133, -65, -20, 1, -8, 4, -19,
	-11, 40, 1, -27, -23, -3, 89, -5, -60, 57, 33, -244, -22, 89, -9, -148, 22, 59, 42, 25, -2, -147, 153, -14, -30, -30, 23, -18, 4, -17
};

#endif //C_SIM_H
